#pragma once
#include <cstdarg>
namespace Eloquent {
    namespace ML {
        namespace Port {
            class RandomForest {
                public:
                    /**
                    * Predict class for features vector
                    */
                    int predict(float *x) {
                        uint8_t votes[12] = { 0 };
                        // tree #1
                        if (x[1] <= -9.510125160217285) {
                            if (x[4] <= -0.31308387219905853) {
                                if (x[7] <= 0.4975244551897049) {
                                    if (x[5] <= 0.17380831390619278) {
                                        votes[3] += 1;
                                    }

                                    else {
                                        if (x[1] <= -9.66161584854126) {
                                            if (x[22] <= 3.2492326498031616) {
                                                if (x[3] <= 1.786867618560791) {
                                                    if (x[11] <= 2.310804009437561) {
                                                        votes[7] += 1;
                                                    }

                                                    else {
                                                        votes[7] += 1;
                                                    }
                                                }

                                                else {
                                                    votes[3] += 1;
                                                }
                                            }

                                            else {
                                                votes[4] += 1;
                                            }
                                        }

                                        else {
                                            votes[3] += 1;
                                        }
                                    }
                                }

                                else {
                                    if (x[11] <= 1.3861578702926636) {
                                        if (x[26] <= 2.090426951646805) {
                                            votes[7] += 1;
                                        }

                                        else {
                                            votes[3] += 1;
                                        }
                                    }

                                    else {
                                        if (x[17] <= -1.440013587474823) {
                                            votes[7] += 1;
                                        }

                                        else {
                                            votes[3] += 1;
                                        }
                                    }
                                }
                            }

                            else {
                                if (x[5] <= 0.2979216128587723) {
                                    if (x[21] <= 129.0) {
                                        if (x[3] <= 0.19026686996221542) {
                                            votes[9] += 1;
                                        }

                                        else {
                                            if (x[23] <= 21.467485427856445) {
                                                if (x[13] <= 0.8361975252628326) {
                                                    if (x[5] <= -0.06965918373316526) {
                                                        votes[8] += 1;
                                                    }

                                                    else {
                                                        votes[9] += 1;
                                                    }
                                                }

                                                else {
                                                    if (x[13] <= 3.994574189186096) {
                                                        votes[3] += 1;
                                                    }

                                                    else {
                                                        votes[7] += 1;
                                                    }
                                                }
                                            }

                                            else {
                                                votes[6] += 1;
                                            }
                                        }
                                    }

                                    else {
                                        if (x[27] <= 3.088474988937378) {
                                            votes[8] += 1;
                                        }

                                        else {
                                            if (x[22] <= 3.7744423151016235) {
                                                votes[7] += 1;
                                            }

                                            else {
                                                if (x[16] <= -17.682347536087036) {
                                                    votes[4] += 1;
                                                }

                                                else {
                                                    votes[9] += 1;
                                                }
                                            }
                                        }
                                    }
                                }

                                else {
                                    if (x[9] <= 9.425378799438477) {
                                        if (x[7] <= 0.345577672123909) {
                                            votes[3] += 1;
                                        }

                                        else {
                                            if (x[4] <= 0.052908167243003845) {
                                                votes[7] += 1;
                                            }

                                            else {
                                                votes[3] += 1;
                                            }
                                        }
                                    }

                                    else {
                                        votes[4] += 1;
                                    }
                                }
                            }
                        }

                        else {
                            if (x[8] <= 0.8706394731998444) {
                                if (x[3] <= 4.6280293464660645) {
                                    if (x[2] <= 5.9354705810546875) {
                                        if (x[16] <= -3.808342933654785) {
                                            if (x[2] <= -6.014341831207275) {
                                                votes[1] += 1;
                                            }

                                            else {
                                                votes[0] += 1;
                                            }
                                        }

                                        else {
                                            if (x[21] <= 112.5) {
                                                if (x[2] <= 0.7583311051130295) {
                                                    votes[1] += 1;
                                                }

                                                else {
                                                    if (x[19] <= -0.04859359934926033) {
                                                        votes[2] += 1;
                                                    }

                                                    else {
                                                        votes[2] += 1;
                                                    }
                                                }
                                            }

                                            else {
                                                if (x[16] <= 1.7559303641319275) {
                                                    if (x[19] <= -0.0855708010494709) {
                                                        votes[8] += 1;
                                                    }

                                                    else {
                                                        votes[3] += 1;
                                                    }
                                                }

                                                else {
                                                    if (x[5] <= 0.04467083141207695) {
                                                        votes[8] += 1;
                                                    }

                                                    else {
                                                        votes[7] += 1;
                                                    }
                                                }
                                            }
                                        }
                                    }

                                    else {
                                        if (x[12] <= 0.3068128675222397) {
                                            if (x[21] <= 100.31818008422852) {
                                                if (x[2] <= 7.9775261878967285) {
                                                    if (x[1] <= -0.783882349729538) {
                                                        votes[2] += 1;
                                                    }

                                                    else {
                                                        votes[1] += 1;
                                                    }
                                                }

                                                else {
                                                    if (x[22] <= 3.1315855979919434) {
                                                        votes[1] += 1;
                                                    }

                                                    else {
                                                        votes[2] += 1;
                                                    }
                                                }
                                            }

                                            else {
                                                if (x[27] <= 1.1192595064640045) {
                                                    if (x[0] <= 109.3585090637207) {
                                                        votes[2] += 1;
                                                    }

                                                    else {
                                                        votes[3] += 1;
                                                    }
                                                }

                                                else {
                                                    votes[11] += 1;
                                                }
                                            }
                                        }

                                        else {
                                            if (x[21] <= 120.0) {
                                                if (x[24] <= 4.589628219604492) {
                                                    if (x[2] <= 8.99215841293335) {
                                                        votes[10] += 1;
                                                    }

                                                    else {
                                                        votes[9] += 1;
                                                    }
                                                }

                                                else {
                                                    if (x[12] <= 0.44174402952194214) {
                                                        votes[2] += 1;
                                                    }

                                                    else {
                                                        votes[1] += 1;
                                                    }
                                                }
                                            }

                                            else {
                                                votes[8] += 1;
                                            }
                                        }
                                    }
                                }

                                else {
                                    if (x[22] <= 0.47867976129055023) {
                                        if (x[1] <= -3.1564180850982666) {
                                            if (x[11] <= 0.1037556566298008) {
                                                if (x[17] <= 5.135926961898804) {
                                                    if (x[26] <= 0.2340560033917427) {
                                                        votes[2] += 1;
                                                    }

                                                    else {
                                                        votes[6] += 1;
                                                    }
                                                }

                                                else {
                                                    if (x[21] <= 95.0) {
                                                        votes[1] += 1;
                                                    }

                                                    else {
                                                        votes[5] += 1;
                                                    }
                                                }
                                            }

                                            else {
                                                if (x[27] <= 0.2513300031423569) {
                                                    if (x[14] <= 82.0) {
                                                        votes[1] += 1;
                                                    }

                                                    else {
                                                        votes[10] += 1;
                                                    }
                                                }

                                                else {
                                                    if (x[20] <= -0.46935850381851196) {
                                                        votes[10] += 1;
                                                    }

                                                    else {
                                                        votes[10] += 1;
                                                    }
                                                }
                                            }
                                        }

                                        else {
                                            if (x[16] <= 2.407928466796875) {
                                                if (x[0] <= 80.10902404785156) {
                                                    if (x[26] <= 0.23606649041175842) {
                                                        votes[10] += 1;
                                                    }

                                                    else {
                                                        votes[1] += 1;
                                                    }
                                                }

                                                else {
                                                    if (x[27] <= 0.6124484837055206) {
                                                        votes[2] += 1;
                                                    }

                                                    else {
                                                        votes[10] += 1;
                                                    }
                                                }
                                            }

                                            else {
                                                if (x[19] <= -0.40950699150562286) {
                                                    if (x[20] <= -0.2597289979457855) {
                                                        votes[1] += 1;
                                                    }

                                                    else {
                                                        votes[2] += 1;
                                                    }
                                                }

                                                else {
                                                    if (x[15] <= 0.19782336056232452) {
                                                        votes[1] += 1;
                                                    }

                                                    else {
                                                        votes[0] += 1;
                                                    }
                                                }
                                            }
                                        }
                                    }

                                    else {
                                        if (x[1] <= 0.3577096313238144) {
                                            if (x[8] <= 0.08746500685811043) {
                                                if (x[16] <= 6.473579406738281) {
                                                    votes[0] += 1;
                                                }

                                                else {
                                                    votes[1] += 1;
                                                }
                                            }

                                            else {
                                                if (x[21] <= 100.5) {
                                                    if (x[3] <= 8.723710060119629) {
                                                        votes[1] += 1;
                                                    }

                                                    else {
                                                        votes[0] += 1;
                                                    }
                                                }

                                                else {
                                                    if (x[9] <= 0.9990037679672241) {
                                                        votes[0] += 1;
                                                    }

                                                    else {
                                                        votes[6] += 1;
                                                    }
                                                }
                                            }
                                        }

                                        else {
                                            if (x[3] <= 8.940197944641113) {
                                                if (x[16] <= 7.675923109054565) {
                                                    if (x[2] <= 7.6603288650512695) {
                                                        votes[0] += 1;
                                                    }

                                                    else {
                                                        votes[1] += 1;
                                                    }
                                                }

                                                else {
                                                    votes[1] += 1;
                                                }
                                            }

                                            else {
                                                if (x[16] <= 2.1022837162017822) {
                                                    votes[2] += 1;
                                                }

                                                else {
                                                    votes[10] += 1;
                                                }
                                            }
                                        }
                                    }
                                }
                            }

                            else {
                                if (x[0] <= 108.03246688842773) {
                                    if (x[17] <= -1.3280226588249207) {
                                        if (x[16] <= -4.1967244148254395) {
                                            if (x[6] <= -0.5013356655836105) {
                                                if (x[3] <= 4.98777961730957) {
                                                    votes[1] += 1;
                                                }

                                                else {
                                                    votes[8] += 1;
                                                }
                                            }

                                            else {
                                                if (x[9] <= 6.86346697807312) {
                                                    if (x[9] <= 2.4537664651870728) {
                                                        votes[1] += 1;
                                                    }

                                                    else {
                                                        votes[9] += 1;
                                                    }
                                                }

                                                else {
                                                    if (x[5] <= 0.28538109362125397) {
                                                        votes[6] += 1;
                                                    }

                                                    else {
                                                        votes[4] += 1;
                                                    }
                                                }
                                            }
                                        }

                                        else {
                                            if (x[1] <= -6.154593229293823) {
                                                if (x[20] <= -3.1359399557113647) {
                                                    if (x[7] <= 0.8259061276912689) {
                                                        votes[8] += 1;
                                                    }

                                                    else {
                                                        votes[9] += 1;
                                                    }
                                                }

                                                else {
                                                    if (x[10] <= 1.637300729751587) {
                                                        votes[9] += 1;
                                                    }

                                                    else {
                                                        votes[9] += 1;
                                                    }
                                                }
                                            }

                                            else {
                                                if (x[15] <= -13.023482322692871) {
                                                    if (x[19] <= -2.233544945716858) {
                                                        votes[8] += 1;
                                                    }

                                                    else {
                                                        votes[10] += 1;
                                                    }
                                                }

                                                else {
                                                    if (x[0] <= 81.2161636352539) {
                                                        votes[1] += 1;
                                                    }

                                                    else {
                                                        votes[10] += 1;
                                                    }
                                                }
                                            }
                                        }
                                    }

                                    else {
                                        if (x[14] <= 91.9000015258789) {
                                            if (x[19] <= -0.39685750007629395) {
                                                if (x[1] <= -7.106927156448364) {
                                                    if (x[8] <= 1.667498767375946) {
                                                        votes[2] += 1;
                                                    }

                                                    else {
                                                        votes[2] += 1;
                                                    }
                                                }

                                                else {
                                                    if (x[15] <= -1.5250470042228699) {
                                                        votes[10] += 1;
                                                    }

                                                    else {
                                                        votes[0] += 1;
                                                    }
                                                }
                                            }

                                            else {
                                                if (x[1] <= 2.2203992009162903) {
                                                    if (x[25] <= 0.8084200024604797) {
                                                        votes[1] += 1;
                                                    }

                                                    else {
                                                        votes[2] += 1;
                                                    }
                                                }

                                                else {
                                                    votes[2] += 1;
                                                }
                                            }
                                        }

                                        else {
                                            if (x[3] <= 5.965193748474121) {
                                                if (x[23] <= 9.932634353637695) {
                                                    if (x[22] <= -3.856571316719055) {
                                                        votes[3] += 1;
                                                    }

                                                    else {
                                                        votes[2] += 1;
                                                    }
                                                }

                                                else {
                                                    if (x[3] <= 3.3350517749786377) {
                                                        votes[7] += 1;
                                                    }

                                                    else {
                                                        votes[10] += 1;
                                                    }
                                                }
                                            }

                                            else {
                                                if (x[11] <= 0.556471586227417) {
                                                    if (x[27] <= 0.7799459993839264) {
                                                        votes[5] += 1;
                                                    }

                                                    else {
                                                        votes[9] += 1;
                                                    }
                                                }

                                                else {
                                                    if (x[25] <= 7.149624824523926) {
                                                        votes[10] += 1;
                                                    }

                                                    else {
                                                        votes[8] += 1;
                                                    }
                                                }
                                            }
                                        }
                                    }
                                }

                                else {
                                    if (x[3] <= 4.1107447147369385) {
                                        if (x[9] <= 10.76781177520752) {
                                            if (x[23] <= 18.253962516784668) {
                                                if (x[21] <= 124.83333206176758) {
                                                    if (x[22] <= -3.4356220960617065) {
                                                        votes[3] += 1;
                                                    }

                                                    else {
                                                        votes[7] += 1;
                                                    }
                                                }

                                                else {
                                                    if (x[4] <= 0.042694685980677605) {
                                                        votes[7] += 1;
                                                    }

                                                    else {
                                                        votes[8] += 1;
                                                    }
                                                }
                                            }

                                            else {
                                                if (x[10] <= 4.807173490524292) {
                                                    if (x[12] <= 1.5118356943130493) {
                                                        votes[6] += 1;
                                                    }

                                                    else {
                                                        votes[11] += 1;
                                                    }
                                                }

                                                else {
                                                    if (x[26] <= 3.4232749938964844) {
                                                        votes[6] += 1;
                                                    }

                                                    else {
                                                        votes[11] += 1;
                                                    }
                                                }
                                            }
                                        }

                                        else {
                                            if (x[2] <= 8.270562648773193) {
                                                if (x[8] <= 8.858563423156738) {
                                                    if (x[4] <= 0.18251648545265198) {
                                                        votes[11] += 1;
                                                    }

                                                    else {
                                                        votes[4] += 1;
                                                    }
                                                }

                                                else {
                                                    votes[4] += 1;
                                                }
                                            }

                                            else {
                                                if (x[12] <= 0.7565172612667084) {
                                                    votes[6] += 1;
                                                }

                                                else {
                                                    votes[4] += 1;
                                                }
                                            }
                                        }
                                    }

                                    else {
                                        if (x[27] <= 1.5771249532699585) {
                                            if (x[19] <= -1.517520010471344) {
                                                if (x[20] <= -2.2885899543762207) {
                                                    if (x[16] <= -3.6877472400665283) {
                                                        votes[8] += 1;
                                                    }

                                                    else {
                                                        votes[5] += 1;
                                                    }
                                                }

                                                else {
                                                    if (x[27] <= 0.9107780158519745) {
                                                        votes[8] += 1;
                                                    }

                                                    else {
                                                        votes[5] += 1;
                                                    }
                                                }
                                            }

                                            else {
                                                if (x[16] <= 2.089063882827759) {
                                                    if (x[25] <= 4.271359920501709) {
                                                        votes[5] += 1;
                                                    }

                                                    else {
                                                        votes[10] += 1;
                                                    }
                                                }

                                                else {
                                                    if (x[16] <= 4.912740230560303) {
                                                        votes[5] += 1;
                                                    }

                                                    else {
                                                        votes[8] += 1;
                                                    }
                                                }
                                            }
                                        }

                                        else {
                                            if (x[23] <= 33.73213768005371) {
                                                if (x[20] <= -2.3032000064849854) {
                                                    if (x[21] <= 138.20833587646484) {
                                                        votes[8] += 1;
                                                    }

                                                    else {
                                                        votes[8] += 1;
                                                    }
                                                }

                                                else {
                                                    if (x[21] <= 116.5) {
                                                        votes[10] += 1;
                                                    }

                                                    else {
                                                        votes[5] += 1;
                                                    }
                                                }
                                            }

                                            else {
                                                if (x[22] <= 8.754383087158203) {
                                                    if (x[21] <= 151.0) {
                                                        votes[6] += 1;
                                                    }

                                                    else {
                                                        votes[4] += 1;
                                                    }
                                                }

                                                else {
                                                    if (x[10] <= 3.8832552433013916) {
                                                        votes[8] += 1;
                                                    }

                                                    else {
                                                        votes[4] += 1;
                                                    }
                                                }
                                            }
                                        }
                                    }
                                }
                            }
                        }

                        // tree #2
                        if (x[22] <= -3.5619510412216187) {
                            if (x[13] <= 1.1055607199668884) {
                                if (x[10] <= 1.0734358429908752) {
                                    if (x[14] <= 111.5) {
                                        if (x[17] <= 3.8316304683685303) {
                                            if (x[8] <= 0.8885193765163422) {
                                                if (x[2] <= 5.989672660827637) {
                                                    if (x[15] <= -11.13388729095459) {
                                                        votes[2] += 1;
                                                    }

                                                    else {
                                                        votes[2] += 1;
                                                    }
                                                }

                                                else {
                                                    if (x[18] <= -0.17534299939870834) {
                                                        votes[3] += 1;
                                                    }

                                                    else {
                                                        votes[0] += 1;
                                                    }
                                                }
                                            }

                                            else {
                                                if (x[23] <= 4.314533948898315) {
                                                    votes[8] += 1;
                                                }

                                                else {
                                                    if (x[6] <= -0.10840536653995514) {
                                                        votes[3] += 1;
                                                    }

                                                    else {
                                                        votes[7] += 1;
                                                    }
                                                }
                                            }
                                        }

                                        else {
                                            if (x[13] <= 0.018685054033994675) {
                                                votes[1] += 1;
                                            }

                                            else {
                                                if (x[22] <= -6.431721925735474) {
                                                    votes[2] += 1;
                                                }

                                                else {
                                                    if (x[9] <= 0.32049931585788727) {
                                                        votes[1] += 1;
                                                    }

                                                    else {
                                                        votes[10] += 1;
                                                    }
                                                }
                                            }
                                        }
                                    }

                                    else {
                                        if (x[19] <= -0.1383894979953766) {
                                            if (x[12] <= 0.28486256301403046) {
                                                if (x[1] <= -6.572061777114868) {
                                                    if (x[2] <= 3.584358334541321) {
                                                        votes[3] += 1;
                                                    }

                                                    else {
                                                        votes[4] += 1;
                                                    }
                                                }

                                                else {
                                                    votes[5] += 1;
                                                }
                                            }

                                            else {
                                                if (x[4] <= -0.1596936658024788) {
                                                    if (x[17] <= 0.7536696493625641) {
                                                        votes[8] += 1;
                                                    }

                                                    else {
                                                        votes[7] += 1;
                                                    }
                                                }

                                                else {
                                                    votes[7] += 1;
                                                }
                                            }
                                        }

                                        else {
                                            if (x[5] <= -0.0025511996645946056) {
                                                votes[11] += 1;
                                            }

                                            else {
                                                votes[8] += 1;
                                            }
                                        }
                                    }
                                }

                                else {
                                    if (x[17] <= -3.5578945875167847) {
                                        if (x[1] <= -7.084984302520752) {
                                            if (x[8] <= 0.8368727266788483) {
                                                votes[2] += 1;
                                            }

                                            else {
                                                if (x[19] <= -1.0311794877052307) {
                                                    votes[9] += 1;
                                                }

                                                else {
                                                    if (x[25] <= 1.6080549359321594) {
                                                        votes[9] += 1;
                                                    }

                                                    else {
                                                        votes[7] += 1;
                                                    }
                                                }
                                            }
                                        }

                                        else {
                                            if (x[10] <= 1.530287742614746) {
                                                votes[9] += 1;
                                            }

                                            else {
                                                votes[7] += 1;
                                            }
                                        }
                                    }

                                    else {
                                        if (x[21] <= 95.5) {
                                            if (x[10] <= 1.1272246837615967) {
                                                if (x[13] <= 0.47935231029987335) {
                                                    if (x[24] <= 5.097007989883423) {
                                                        votes[9] += 1;
                                                    }

                                                    else {
                                                        votes[1] += 1;
                                                    }
                                                }

                                                else {
                                                    votes[0] += 1;
                                                }
                                            }

                                            else {
                                                if (x[3] <= 4.891835689544678) {
                                                    if (x[15] <= -8.3971107006073) {
                                                        votes[2] += 1;
                                                    }

                                                    else {
                                                        votes[10] += 1;
                                                    }
                                                }

                                                else {
                                                    votes[10] += 1;
                                                }
                                            }
                                        }

                                        else {
                                            if (x[10] <= 1.6521064639091492) {
                                                if (x[18] <= -2.6444350481033325) {
                                                    if (x[17] <= 0.1613132357597351) {
                                                        votes[7] += 1;
                                                    }

                                                    else {
                                                        votes[3] += 1;
                                                    }
                                                }

                                                else {
                                                    if (x[13] <= 0.7978449463844299) {
                                                        votes[7] += 1;
                                                    }

                                                    else {
                                                        votes[3] += 1;
                                                    }
                                                }
                                            }

                                            else {
                                                if (x[0] <= 118.5322265625) {
                                                    if (x[8] <= 0.6885716915130615) {
                                                        votes[2] += 1;
                                                    }

                                                    else {
                                                        votes[9] += 1;
                                                    }
                                                }

                                                else {
                                                    votes[5] += 1;
                                                }
                                            }
                                        }
                                    }
                                }
                            }

                            else {
                                if (x[7] <= 0.8767973184585571) {
                                    if (x[0] <= 128.84825897216797) {
                                        if (x[0] <= 91.8100357055664) {
                                            if (x[16] <= -0.45130449533462524) {
                                                votes[7] += 1;
                                            }

                                            else {
                                                if (x[18] <= -2.199014961719513) {
                                                    votes[2] += 1;
                                                }

                                                else {
                                                    if (x[7] <= 0.37341922521591187) {
                                                        votes[8] += 1;
                                                    }

                                                    else {
                                                        votes[3] += 1;
                                                    }
                                                }
                                            }
                                        }

                                        else {
                                            if (x[8] <= 0.9985544085502625) {
                                                votes[2] += 1;
                                            }

                                            else {
                                                if (x[2] <= 4.496475458145142) {
                                                    if (x[20] <= -1.9954150319099426) {
                                                        votes[3] += 1;
                                                    }

                                                    else {
                                                        votes[3] += 1;
                                                    }
                                                }

                                                else {
                                                    if (x[23] <= 13.126793384552002) {
                                                        votes[3] += 1;
                                                    }

                                                    else {
                                                        votes[6] += 1;
                                                    }
                                                }
                                            }
                                        }
                                    }

                                    else {
                                        if (x[3] <= 2.1609554290771484) {
                                            votes[7] += 1;
                                        }

                                        else {
                                            if (x[23] <= 16.235547065734863) {
                                                if (x[3] <= 2.6305742263793945) {
                                                    votes[7] += 1;
                                                }

                                                else {
                                                    if (x[24] <= 10.795542240142822) {
                                                        votes[8] += 1;
                                                    }

                                                    else {
                                                        votes[9] += 1;
                                                    }
                                                }
                                            }

                                            else {
                                                votes[6] += 1;
                                            }
                                        }
                                    }
                                }

                                else {
                                    if (x[0] <= 119.73758316040039) {
                                        if (x[4] <= -0.36199839413166046) {
                                            votes[7] += 1;
                                        }

                                        else {
                                            if (x[1] <= -9.059086322784424) {
                                                if (x[6] <= 0.21361897140741348) {
                                                    votes[3] += 1;
                                                }

                                                else {
                                                    if (x[2] <= 3.5919063091278076) {
                                                        votes[7] += 1;
                                                    }

                                                    else {
                                                        votes[3] += 1;
                                                    }
                                                }
                                            }

                                            else {
                                                if (x[19] <= -0.7682555019855499) {
                                                    if (x[0] <= 95.96804428100586) {
                                                        votes[2] += 1;
                                                    }

                                                    else {
                                                        votes[3] += 1;
                                                    }
                                                }

                                                else {
                                                    votes[7] += 1;
                                                }
                                            }
                                        }
                                    }

                                    else {
                                        votes[7] += 1;
                                    }
                                }
                            }
                        }

                        else {
                            if (x[15] <= -3.4870413541793823) {
                                if (x[23] <= 22.7629337310791) {
                                    if (x[0] <= 108.03622436523438) {
                                        if (x[3] <= 3.6873395442962646) {
                                            if (x[1] <= -5.4922919273376465) {
                                                if (x[10] <= 1.6567506194114685) {
                                                    if (x[2] <= 2.8286670446395874) {
                                                        votes[8] += 1;
                                                    }

                                                    else {
                                                        votes[2] += 1;
                                                    }
                                                }

                                                else {
                                                    if (x[1] <= -11.073644161224365) {
                                                        votes[3] += 1;
                                                    }

                                                    else {
                                                        votes[9] += 1;
                                                    }
                                                }
                                            }

                                            else {
                                                if (x[21] <= 99.5) {
                                                    if (x[16] <= -3.571537137031555) {
                                                        votes[9] += 1;
                                                    }

                                                    else {
                                                        votes[10] += 1;
                                                    }
                                                }

                                                else {
                                                    if (x[19] <= -2.2334749698638916) {
                                                        votes[8] += 1;
                                                    }

                                                    else {
                                                        votes[9] += 1;
                                                    }
                                                }
                                            }
                                        }

                                        else {
                                            if (x[26] <= 0.3553580045700073) {
                                                if (x[0] <= 80.38858413696289) {
                                                    if (x[9] <= 1.146056354045868) {
                                                        votes[1] += 1;
                                                    }

                                                    else {
                                                        votes[10] += 1;
                                                    }
                                                }

                                                else {
                                                    if (x[15] <= -3.9942389726638794) {
                                                        votes[10] += 1;
                                                    }

                                                    else {
                                                        votes[2] += 1;
                                                    }
                                                }
                                            }

                                            else {
                                                if (x[8] <= 3.5239129066467285) {
                                                    if (x[1] <= -6.980777025222778) {
                                                        votes[9] += 1;
                                                    }

                                                    else {
                                                        votes[10] += 1;
                                                    }
                                                }

                                                else {
                                                    if (x[11] <= 1.1483493447303772) {
                                                        votes[9] += 1;
                                                    }

                                                    else {
                                                        votes[10] += 1;
                                                    }
                                                }
                                            }
                                        }
                                    }

                                    else {
                                        if (x[3] <= 3.9851958751678467) {
                                            if (x[22] <= 1.3015577793121338) {
                                                if (x[3] <= 2.828891634941101) {
                                                    if (x[17] <= -2.6335372924804688) {
                                                        votes[7] += 1;
                                                    }

                                                    else {
                                                        votes[7] += 1;
                                                    }
                                                }

                                                else {
                                                    if (x[4] <= 0.10440774261951447) {
                                                        votes[6] += 1;
                                                    }

                                                    else {
                                                        votes[8] += 1;
                                                    }
                                                }
                                            }

                                            else {
                                                if (x[4] <= 0.37649133801460266) {
                                                    if (x[0] <= 138.59119415283203) {
                                                        votes[9] += 1;
                                                    }

                                                    else {
                                                        votes[7] += 1;
                                                    }
                                                }

                                                else {
                                                    if (x[11] <= 1.6540310382843018) {
                                                        votes[8] += 1;
                                                    }

                                                    else {
                                                        votes[11] += 1;
                                                    }
                                                }
                                            }
                                        }

                                        else {
                                            if (x[20] <= -2.092349886894226) {
                                                if (x[2] <= 3.892748236656189) {
                                                    if (x[4] <= 0.24351071566343307) {
                                                        votes[8] += 1;
                                                    }

                                                    else {
                                                        votes[8] += 1;
                                                    }
                                                }

                                                else {
                                                    if (x[14] <= 118.0) {
                                                        votes[10] += 1;
                                                    }

                                                    else {
                                                        votes[8] += 1;
                                                    }
                                                }
                                            }

                                            else {
                                                if (x[1] <= -1.713995635509491) {
                                                    if (x[27] <= 1.8720849752426147) {
                                                        votes[5] += 1;
                                                    }

                                                    else {
                                                        votes[5] += 1;
                                                    }
                                                }

                                                else {
                                                    if (x[15] <= -9.542147636413574) {
                                                        votes[8] += 1;
                                                    }

                                                    else {
                                                        votes[5] += 1;
                                                    }
                                                }
                                            }
                                        }
                                    }
                                }

                                else {
                                    if (x[12] <= 1.003237783908844) {
                                        if (x[3] <= 3.879091739654541) {
                                            if (x[27] <= 2.7813600301742554) {
                                                if (x[5] <= 0.43150097131729126) {
                                                    if (x[15] <= -11.65782117843628) {
                                                        votes[9] += 1;
                                                    }

                                                    else {
                                                        votes[6] += 1;
                                                    }
                                                }

                                                else {
                                                    votes[7] += 1;
                                                }
                                            }

                                            else {
                                                if (x[2] <= 3.2888318300247192) {
                                                    votes[3] += 1;
                                                }

                                                else {
                                                    if (x[27] <= 7.550755023956299) {
                                                        votes[6] += 1;
                                                    }

                                                    else {
                                                        votes[8] += 1;
                                                    }
                                                }
                                            }
                                        }

                                        else {
                                            if (x[23] <= 30.66174030303955) {
                                                if (x[3] <= 7.213995456695557) {
                                                    if (x[20] <= -1.5200250148773193) {
                                                        votes[9] += 1;
                                                    }

                                                    else {
                                                        votes[1] += 1;
                                                    }
                                                }

                                                else {
                                                    votes[5] += 1;
                                                }
                                            }

                                            else {
                                                if (x[14] <= 154.5) {
                                                    if (x[7] <= 0.42805060744285583) {
                                                        votes[6] += 1;
                                                    }

                                                    else {
                                                        votes[0] += 1;
                                                    }
                                                }

                                                else {
                                                    votes[4] += 1;
                                                }
                                            }
                                        }
                                    }

                                    else {
                                        if (x[27] <= 4.4138500690460205) {
                                            if (x[5] <= 0.15093085169792175) {
                                                if (x[3] <= 6.311342477798462) {
                                                    if (x[2] <= 7.7298500537872314) {
                                                        votes[9] += 1;
                                                    }

                                                    else {
                                                        votes[4] += 1;
                                                    }
                                                }

                                                else {
                                                    votes[8] += 1;
                                                }
                                            }

                                            else {
                                                if (x[13] <= 1.363771915435791) {
                                                    votes[9] += 1;
                                                }

                                                else {
                                                    if (x[14] <= 115.5) {
                                                        votes[1] += 1;
                                                    }

                                                    else {
                                                        votes[11] += 1;
                                                    }
                                                }
                                            }
                                        }

                                        else {
                                            if (x[23] <= 36.35949897766113) {
                                                if (x[20] <= -8.688975095748901) {
                                                    if (x[21] <= 135.0) {
                                                        votes[7] += 1;
                                                    }

                                                    else {
                                                        votes[11] += 1;
                                                    }
                                                }

                                                else {
                                                    if (x[4] <= 0.15499026328325272) {
                                                        votes[6] += 1;
                                                    }

                                                    else {
                                                        votes[11] += 1;
                                                    }
                                                }
                                            }

                                            else {
                                                if (x[22] <= 7.2711100578308105) {
                                                    votes[6] += 1;
                                                }

                                                else {
                                                    if (x[24] <= 21.52400016784668) {
                                                        votes[4] += 1;
                                                    }

                                                    else {
                                                        votes[4] += 1;
                                                    }
                                                }
                                            }
                                        }
                                    }
                                }
                            }

                            else {
                                if (x[15] <= 0.17126644402742386) {
                                    if (x[12] <= 0.3286347985267639) {
                                        if (x[16] <= 1.7370858192443848) {
                                            if (x[0] <= 106.17430114746094) {
                                                if (x[14] <= 86.5) {
                                                    if (x[7] <= 4.073545604944229) {
                                                        votes[1] += 1;
                                                    }

                                                    else {
                                                        votes[0] += 1;
                                                    }
                                                }

                                                else {
                                                    if (x[5] <= -0.04312485456466675) {
                                                        votes[8] += 1;
                                                    }

                                                    else {
                                                        votes[2] += 1;
                                                    }
                                                }
                                            }

                                            else {
                                                votes[0] += 1;
                                            }
                                        }

                                        else {
                                            if (x[22] <= 3.0985039472579956) {
                                                if (x[18] <= -5.707190036773682) {
                                                    votes[10] += 1;
                                                }

                                                else {
                                                    if (x[21] <= 104.5) {
                                                        votes[1] += 1;
                                                    }

                                                    else {
                                                        votes[0] += 1;
                                                    }
                                                }
                                            }

                                            else {
                                                votes[2] += 1;
                                            }
                                        }
                                    }

                                    else {
                                        if (x[23] <= 12.746783256530762) {
                                            if (x[14] <= 102.0) {
                                                if (x[21] <= 81.5) {
                                                    if (x[24] <= 13.202806949615479) {
                                                        votes[1] += 1;
                                                    }

                                                    else {
                                                        votes[0] += 1;
                                                    }
                                                }

                                                else {
                                                    if (x[23] <= 12.567360401153564) {
                                                        votes[0] += 1;
                                                    }

                                                    else {
                                                        votes[2] += 1;
                                                    }
                                                }
                                            }

                                            else {
                                                if (x[13] <= 0.24825910478830338) {
                                                    votes[6] += 1;
                                                }

                                                else {
                                                    if (x[0] <= 113.83322143554688) {
                                                        votes[8] += 1;
                                                    }

                                                    else {
                                                        votes[7] += 1;
                                                    }
                                                }
                                            }
                                        }

                                        else {
                                            if (x[20] <= -0.937549501657486) {
                                                if (x[15] <= -1.5635424852371216) {
                                                    if (x[4] <= -0.2501588761806488) {
                                                        votes[1] += 1;
                                                    }

                                                    else {
                                                        votes[10] += 1;
                                                    }
                                                }

                                                else {
                                                    if (x[24] <= 5.107564091682434) {
                                                        votes[9] += 1;
                                                    }

                                                    else {
                                                        votes[4] += 1;
                                                    }
                                                }
                                            }

                                            else {
                                                votes[1] += 1;
                                            }
                                        }
                                    }
                                }

                                else {
                                    if (x[2] <= 7.639328479766846) {
                                        if (x[3] <= 8.99661111831665) {
                                            if (x[3] <= 4.480486631393433) {
                                                if (x[22] <= 5.40271258354187) {
                                                    if (x[12] <= 0.16133438795804977) {
                                                        votes[0] += 1;
                                                    }

                                                    else {
                                                        votes[11] += 1;
                                                    }
                                                }

                                                else {
                                                    if (x[13] <= 0.14563094824552536) {
                                                        votes[1] += 1;
                                                    }

                                                    else {
                                                        votes[2] += 1;
                                                    }
                                                }
                                            }

                                            else {
                                                if (x[0] <= 82.9798355102539) {
                                                    votes[0] += 1;
                                                }

                                                else {
                                                    if (x[2] <= 5.960669994354248) {
                                                        votes[0] += 1;
                                                    }

                                                    else {
                                                        votes[1] += 1;
                                                    }
                                                }
                                            }
                                        }

                                        else {
                                            if (x[20] <= -0.07061285153031349) {
                                                votes[2] += 1;
                                            }

                                            else {
                                                votes[10] += 1;
                                            }
                                        }
                                    }

                                    else {
                                        if (x[1] <= 1.9896571040153503) {
                                            if (x[9] <= 1.044859141111374) {
                                                if (x[17] <= 5.379698991775513) {
                                                    if (x[5] <= 0.017496485263109207) {
                                                        votes[1] += 1;
                                                    }

                                                    else {
                                                        votes[2] += 1;
                                                    }
                                                }

                                                else {
                                                    votes[0] += 1;
                                                }
                                            }

                                            else {
                                                if (x[2] <= 8.609419107437134) {
                                                    votes[0] += 1;
                                                }

                                                else {
                                                    votes[2] += 1;
                                                }
                                            }
                                        }

                                        else {
                                            if (x[21] <= 150.0) {
                                                if (x[12] <= 0.5773687213659286) {
                                                    if (x[0] <= 95.04647827148438) {
                                                        votes[1] += 1;
                                                    }

                                                    else {
                                                        votes[2] += 1;
                                                    }
                                                }

                                                else {
                                                    if (x[14] <= 112.0) {
                                                        votes[10] += 1;
                                                    }

                                                    else {
                                                        votes[8] += 1;
                                                    }
                                                }
                                            }

                                            else {
                                                votes[7] += 1;
                                            }
                                        }
                                    }
                                }
                            }
                        }

                        // tree #3
                        if (x[13] <= 0.16974573582410812) {
                            if (x[26] <= 0.08563955128192902) {
                                if (x[1] <= 0.2860260307788849) {
                                    if (x[17] <= 3.482807159423828) {
                                        if (x[26] <= 0.05138440057635307) {
                                            if (x[25] <= 0.20864799618721008) {
                                                if (x[12] <= 0.020742694847285748) {
                                                    if (x[26] <= 0.04855315014719963) {
                                                        votes[2] += 1;
                                                    }

                                                    else {
                                                        votes[1] += 1;
                                                    }
                                                }

                                                else {
                                                    if (x[3] <= -3.319984346628189) {
                                                        votes[3] += 1;
                                                    }

                                                    else {
                                                        votes[2] += 1;
                                                    }
                                                }
                                            }

                                            else {
                                                votes[1] += 1;
                                            }
                                        }

                                        else {
                                            if (x[2] <= 5.372908115386963) {
                                                if (x[25] <= 0.5610609948635101) {
                                                    if (x[19] <= -0.05134524963796139) {
                                                        votes[2] += 1;
                                                    }

                                                    else {
                                                        votes[2] += 1;
                                                    }
                                                }

                                                else {
                                                    if (x[8] <= 0.19304704666137695) {
                                                        votes[10] += 1;
                                                    }

                                                    else {
                                                        votes[0] += 1;
                                                    }
                                                }
                                            }

                                            else {
                                                if (x[1] <= -4.992488861083984) {
                                                    if (x[8] <= 0.9389753267168999) {
                                                        votes[2] += 1;
                                                    }

                                                    else {
                                                        votes[7] += 1;
                                                    }
                                                }

                                                else {
                                                    votes[1] += 1;
                                                }
                                            }
                                        }
                                    }

                                    else {
                                        if (x[5] <= -0.018570949789136648) {
                                            if (x[23] <= 6.862924098968506) {
                                                votes[2] += 1;
                                            }

                                            else {
                                                votes[1] += 1;
                                            }
                                        }

                                        else {
                                            if (x[22] <= -4.390324354171753) {
                                                if (x[12] <= 0.023795071989297867) {
                                                    votes[1] += 1;
                                                }

                                                else {
                                                    if (x[20] <= -0.06443649902939796) {
                                                        votes[10] += 1;
                                                    }

                                                    else {
                                                        votes[2] += 1;
                                                    }
                                                }
                                            }

                                            else {
                                                if (x[16] <= -1.281703531742096) {
                                                    votes[0] += 1;
                                                }

                                                else {
                                                    votes[1] += 1;
                                                }
                                            }
                                        }
                                    }
                                }

                                else {
                                    if (x[0] <= 85.59125137329102) {
                                        if (x[23] <= 8.150921821594238) {
                                            if (x[24] <= 9.339394569396973) {
                                                votes[0] += 1;
                                            }

                                            else {
                                                votes[2] += 1;
                                            }
                                        }

                                        else {
                                            votes[1] += 1;
                                        }
                                    }

                                    else {
                                        if (x[9] <= 0.060679465532302856) {
                                            if (x[3] <= 7.648755311965942) {
                                                if (x[3] <= -1.5409529209136963) {
                                                    votes[0] += 1;
                                                }

                                                else {
                                                    votes[1] += 1;
                                                }
                                            }

                                            else {
                                                votes[0] += 1;
                                            }
                                        }

                                        else {
                                            if (x[24] <= 4.865113258361816) {
                                                if (x[22] <= 1.7939267754554749) {
                                                    votes[1] += 1;
                                                }

                                                else {
                                                    votes[2] += 1;
                                                }
                                            }

                                            else {
                                                if (x[25] <= 0.5266900062561035) {
                                                    votes[0] += 1;
                                                }

                                                else {
                                                    votes[1] += 1;
                                                }
                                            }
                                        }
                                    }
                                }
                            }

                            else {
                                if (x[14] <= 80.40909194946289) {
                                    if (x[14] <= 66.0) {
                                        votes[0] += 1;
                                    }

                                    else {
                                        if (x[0] <= 72.99760818481445) {
                                            if (x[22] <= -4.6678168177604675) {
                                                if (x[25] <= 0.11866450309753418) {
                                                    votes[10] += 1;
                                                }

                                                else {
                                                    votes[2] += 1;
                                                }
                                            }

                                            else {
                                                if (x[3] <= 5.750356435775757) {
                                                    votes[1] += 1;
                                                }

                                                else {
                                                    if (x[14] <= 69.5) {
                                                        votes[1] += 1;
                                                    }

                                                    else {
                                                        votes[0] += 1;
                                                    }
                                                }
                                            }
                                        }

                                        else {
                                            if (x[17] <= 4.44301438331604) {
                                                if (x[15] <= -6.047573089599609) {
                                                    if (x[17] <= -1.225617527961731) {
                                                        votes[0] += 1;
                                                    }

                                                    else {
                                                        votes[2] += 1;
                                                    }
                                                }

                                                else {
                                                    if (x[3] <= -6.394307374954224) {
                                                        votes[0] += 1;
                                                    }

                                                    else {
                                                        votes[1] += 1;
                                                    }
                                                }
                                            }

                                            else {
                                                if (x[15] <= 0.4926050454378128) {
                                                    if (x[16] <= -2.681196689605713) {
                                                        votes[0] += 1;
                                                    }

                                                    else {
                                                        votes[1] += 1;
                                                    }
                                                }

                                                else {
                                                    if (x[22] <= 2.250114917755127) {
                                                        votes[2] += 1;
                                                    }

                                                    else {
                                                        votes[0] += 1;
                                                    }
                                                }
                                            }
                                        }
                                    }
                                }

                                else {
                                    if (x[16] <= 5.266219615936279) {
                                        if (x[15] <= -7.467128753662109) {
                                            if (x[21] <= 110.5) {
                                                if (x[0] <= 105.43205642700195) {
                                                    if (x[8] <= 0.05173663981258869) {
                                                        votes[1] += 1;
                                                    }

                                                    else {
                                                        votes[2] += 1;
                                                    }
                                                }

                                                else {
                                                    if (x[1] <= -8.418235778808594) {
                                                        votes[3] += 1;
                                                    }

